{
  "feature_columns": [
    "pct_chg",
    "intraday_ret",
    "close_to_high",
    "upper_shadow",
    "volume_ratio_5",
    "amount_ratio_5",
    "turnover",
    "ret_3",
    "ret_5",
    "ret_10",
    "volatility_5",
    "limit_gap",
    "mkt_cap_log",
    "market_ret",
    "market_limit_hits",
    "board_main",
    "board_star",
    "board_chinext",
    "board_bse",
    "is_st",
    "tail_ret_1430_1457",
    "tail_ret_1450_1457",
    "tail_volume_ratio",
    "tail_amount_ratio",
    "tail_volume_vs_5d",
    "tail_high_break",
    "tail_close_to_high",
    "tail_limit_gap",
    "tail_vwap_deviation",
    "tail_pullback",
    "tail_range"
  ],
  "weights": [
    -0.022587127093579126,
    -0.010937050166246206,
    0.0028578304331128655,
    0.0021305299812259277,
    0.005054543551493212,
    0.004074281920938906,
    0.0,
    -0.006320091322764149,
    -0.0022139187827962805,
    0.0026434931512768693,
    -0.018252103349275992,
    -0.10801557602958257,
    0.018794780410065902,
    0.001412229947900408,
    -0.00025622165712486873,
    0.18099219167124297,
    -0.04303444278143849,
    -0.13325633048725216,
    -0.07776345592555611,
    0.023431817024896755,
    0.006373437862259511,
    -0.009536862879776523,
    0.0008436058797941561,
    0.0008647370656860194,
    -0.005517131651112011,
    0.004326061207885037,
    -0.0046268347513477165,
    -0.006721756852340404,
    -0.0004831842653562921,
    -0.0046268347513477165,
    0.001925615391816738
  ],
  "bias": -3.676946570464632,
  "mean": [
    0.0003336879566280541,
    0.0011125839159876782,
    -0.02185437195580026,
    0.012067672380042653,
    1.0148266042566203,
    1.0142991918068538,
    0.0,
    5.7013198739733476e-05,
    -0.0011752357499122327,
    -0.0007377222877253054,
    0.028811416575163975,
    0.14550977572913087,
    23.587441832811166,
    0.00033410997865117846,
    144.7878453038674,
    0.5804481276856968,
    0.11004834254143646,
    0.25348756906077347,
    0.05601596071209331,
    0.041294505831798646,
    2.2869846024051233e-06,
    2.5102460340963416e-06,
    0.00033368673572249,
    0.0003337971865850079,
    0.0018537705677378945,
    0.00013812154696132598,
    -7.427588672264888e-06,
    0.00014775348128762575,
    4.826179065854753e-06,
    -7.427588672264888e-06,
    1.797712327945987e-05
  ],
  "std": [
    0.035285931651542986,
    0.031225935784682503,
    0.019276914478950528,
    0.012850773754382419,
    0.33079851485526984,
    0.34437391142942286,
    1.0,
    0.06271503716921341,
    0.08234381278910802,
    0.11975568875457218,
    0.01936694465391846,
    0.08733591263145116,
    1.3216506405806627,
    0.013119685074000187,
    37.7890334936756,
    0.49348566215429784,
    0.31295000374711474,
    0.4350076107293218,
    0.22995254479477825,
    0.19897052450025407,
    0.000298522057597362,
    0.0001880479739647853,
    0.00809530367550183,
    0.00809742846457334,
    0.04138896310142691,
    0.011751700702434136,
    0.0002429907350245035,
    0.003587536159395156,
    0.0006139492214685993,
    0.0002429907350245035,
    0.0005100218214227977
  ]
}